## LambdaMART
## No. of trees = 1000
## No. of leaves = 10
## No. of threshold candidates = 256
## Learning rate = 0.1
## Stop early = 100

<ensemble>
	<tree id="1" weight="0.1">
		<split>
			<feature> 1 </feature>
			<threshold> 15.123192 </threshold>
			<split pos="left">
				<feature> 3 </feature>
				<threshold> 7.946692 </threshold>
				<split pos="left">
					<feature> 3 </feature>
					<threshold> 7.4586844 </threshold>
					<split pos="left">
						<feature> 21 </feature>
						<threshold> 0.0 </threshold>
						<split pos="left">
							<feature> 3 </feature>
							<threshold> 6.5255065 </threshold>
							<split pos="left">
								<feature> 9 </feature>
								<threshold> 0.0 </threshold>
								<split pos="left">
									<output> 0.015282871201634407 </output>
								</split>
								<split pos="right">
									<output> -0.9195496439933777 </output>
								</split>
							</split>
							<split pos="right">
								<output> 0.6696636080741882 </output>
							</split>
						</split>
						<split pos="right">
							<output> -1.3787838220596313 </output>
						</split>
					</split>
					<split pos="right">
						<output> -1.1912569999694824 </output>
					</split>
				</split>
				<split pos="right">
					<feature> 1 </feature>
					<threshold> 8.176082 </threshold>
					<split pos="left">
						<feature> 3 </feature>
						<threshold> 8.170231 </threshold>
						<split pos="left">
							<output> 1.689428687095642 </output>
						</split>
						<split pos="right">
							<output> 2.0 </output>
						</split>
					</split>
					<split pos="right">
						<feature> 6 </feature>
						<threshold> 0.11988274 </threshold>
						<split pos="left">
							<output> 0.8470252752304077 </output>
						</split>
						<split pos="right">
							<output> -1.9637222290039062 </output>
						</split>
					</split>
				</split>
			</split>
			<split pos="right">
				<output> 1.8975504636764526 </output>
			</split>
		</split>
	</tree>
	<tree id="2" weight="0.1">
		<split>
			<feature> 1 </feature>
			<threshold> 15.123192 </threshold>
			<split pos="left">
				<feature> 3 </feature>
				<threshold> 10.915018 </threshold>
				<split pos="left">
					<feature> 3 </feature>
					<threshold> 7.946692 </threshold>
					<split pos="left">
						<feature> 3 </feature>
						<threshold> 6.5255065 </threshold>
						<split pos="left">
							<feature> 5 </feature>
							<threshold> 5.241105 </threshold>
							<split pos="left">
								<output> -0.8797851204872131 </output>
							</split>
							<split pos="right">
								<feature> 22 </feature>
								<threshold> 0.0 </threshold>
								<split pos="left">
									<output> -0.21936576068401337 </output>
								</split>
								<split pos="right">
									<output> 1.2365976572036743 </output>
								</split>
							</split>
						</split>
						<split pos="right">
							<output> 0.4157748818397522 </output>
						</split>
					</split>
					<split pos="right">
						<feature> 1 </feature>
						<threshold> 8.27604 </threshold>
						<split pos="left">
							<feature> 4 </feature>
							<threshold> 0.0 </threshold>
							<split pos="left">
								<output> 1.7810039520263672 </output>
							</split>
							<split pos="right">
								<output> 1.6704585552215576 </output>
							</split>
						</split>
						<split pos="right">
							<feature> 6 </feature>
							<threshold> 0.009776709 </threshold>
							<split pos="left">
								<output> 1.7554298639297485 </output>
							</split>
							<split pos="right">
								<output> 0.4651806056499481 </output>
							</split>
						</split>
					</split>
				</split>
				<split pos="right">
					<output> -2.071287155151367 </output>
				</split>
			</split>
			<split pos="right">
				<output> 1.6979776620864868 </output>
			</split>
		</split>
	</tree>
	<tree id="3" weight="0.1">
		<split>
			<feature> 1 </feature>
			<threshold> 15.123192 </threshold>
			<split pos="left">
				<feature> 3 </feature>
				<threshold> 7.946692 </threshold>
				<split pos="left">
					<feature> 22 </feature>
					<threshold> 0.0 </threshold>
					<split pos="left">
						<feature> 3 </feature>
						<threshold> 6.485597 </threshold>
						<split pos="left">
							<feature> 4 </feature>
							<threshold> 2.6095278 </threshold>
							<split pos="left">
								<feature> 4 </feature>
								<threshold> 1.5144596 </threshold>
								<split pos="left">
									<output> -0.5468723177909851 </output>
								</split>
								<split pos="right">
									<output> -0.9529174566268921 </output>
								</split>
							</split>
							<split pos="right">
								<output> 0.8519676327705383 </output>
							</split>
						</split>
						<split pos="right">
							<output> 0.3356532156467438 </output>
						</split>
					</split>
					<split pos="right">
						<feature> 15 </feature>
						<threshold> 0.0 </threshold>
						<split pos="left">
							<output> 0.6258331537246704 </output>
						</split>
						<split pos="right">
							<output> 1.573652982711792 </output>
						</split>
					</split>
				</split>
				<split pos="right">
					<feature> 1 </feature>
					<threshold> 8.27604 </threshold>
					<split pos="left">
						<feature> 3 </feature>
						<threshold> 8.170231 </threshold>
						<split pos="left">
							<output> 1.5085800886154175 </output>
						</split>
						<split pos="right">
							<output> 1.6068379878997803 </output>
						</split>
					</split>
					<split pos="right">
						<output> 0.5411409139633179 </output>
					</split>
				</split>
			</split>
			<split pos="right">
				<output> 1.5574913024902344 </output>
			</split>
		</split>
	</tree>
	<tree id="4" weight="0.1">
		<split>
			<feature> 5 </feature>
			<threshold> 15.161774 </threshold>
			<split pos="left">
				<feature> 3 </feature>
				<threshold> 7.946692 </threshold>
				<split pos="left">
					<feature> 6 </feature>
					<threshold> 0.011395915 </threshold>
					<split pos="left">
						<feature> 22 </feature>
						<threshold> 0.0 </threshold>
						<split pos="left">
							<output> -0.789010226726532 </output>
						</split>
						<split pos="right">
							<output> -2.291337490081787 </output>
						</split>
					</split>
					<split pos="right">
						<feature> 22 </feature>
						<threshold> 0.0 </threshold>
						<split pos="left">
							<feature> 3 </feature>
							<threshold> 7.4586844 </threshold>
							<split pos="left">
								<feature> 16 </feature>
								<threshold> 0.0 </threshold>
								<split pos="left">
									<output> -0.4983437955379486 </output>
								</split>
								<split pos="right">
									<output> 0.40787607431411743 </output>
								</split>
							</split>
							<split pos="right">
								<output> -1.2499597072601318 </output>
							</split>
						</split>
						<split pos="right">
							<feature> 15 </feature>
							<threshold> 0.0 </threshold>
							<split pos="left">
								<output> 0.7100898623466492 </output>
							</split>
							<split pos="right">
								<output> 1.405070424079895 </output>
							</split>
						</split>
					</split>
				</split>
				<split pos="right">
					<feature> 1 </feature>
					<threshold> 8.176082 </threshold>
					<split pos="left">
						<output> 1.4651678800582886 </output>
					</split>
					<split pos="right">
						<output> 0.6457424759864807 </output>
					</split>
				</split>
			</split>
			<split pos="right">
				<output> 1.4120886325836182 </output>
			</split>
		</split>
	</tree>
	<tree id="5" weight="0.1">
		<split>
			<feature> 1 </feature>
			<threshold> 15.123192 </threshold>
			<split pos="left">
				<feature> 3 </feature>
				<threshold> 7.946692 </threshold>
				<split pos="left">
					<feature> 22 </feature>
					<threshold> 0.0 </threshold>
					<split pos="left">
						<feature> 3 </feature>
						<threshold> 7.367472 </threshold>
						<split pos="left">
							<feature> 3 </feature>
							<threshold> 6.884456 </threshold>
							<split pos="left">
								<feature> 3 </feature>
								<threshold> 6.5255065 </threshold>
								<split pos="left">
									<output> -0.48477157950401306 </output>
								</split>
								<split pos="right">
									<output> 0.5837779641151428 </output>
								</split>
							</split>
							<split pos="right">
								<output> -0.6448429226875305 </output>
							</split>
						</split>
						<split pos="right">
							<output> 0.43805739283561707 </output>
						</split>
					</split>
					<split pos="right">
						<feature> 1 </feature>
						<threshold> 12.924107 </threshold>
						<split pos="left">
							<feature> 13 </feature>
							<threshold> 0.0 </threshold>
							<split pos="left">
								<output> 1.2701232433319092 </output>
							</split>
							<split pos="right">
								<output> 0.2966567575931549 </output>
							</split>
						</split>
						<split pos="right">
							<output> -0.8727350831031799 </output>
						</split>
					</split>
				</split>
				<split pos="right">
					<feature> 1 </feature>
					<threshold> 8.27604 </threshold>
					<split pos="left">
						<output> 1.3745077848434448 </output>
					</split>
					<split pos="right">
						<output> 0.32300809025764465 </output>
					</split>
				</split>
			</split>
			<split pos="right">
				<output> 1.3165127038955688 </output>
			</split>
		</split>
	</tree>
	<tree id="6" weight="0.1">
		<split>
			<feature> 22 </feature>
			<threshold> 0.0 </threshold>
			<split pos="left">
				<feature> 1 </feature>
				<threshold> 15.123192 </threshold>
				<split pos="left">
					<feature> 3 </feature>
					<threshold> 7.946692 </threshold>
					<split pos="left">
						<feature> 3 </feature>
						<threshold> 7.367472 </threshold>
						<split pos="left">
							<feature> 4 </feature>
							<threshold> 0.4892861 </threshold>
							<split pos="left">
								<output> -0.7353571057319641 </output>
							</split>
							<split pos="right">
								<output> -0.36255720257759094 </output>
							</split>
						</split>
						<split pos="right">
							<output> 0.28235355019569397 </output>
						</split>
					</split>
					<split pos="right">
						<feature> 1 </feature>
						<threshold> 8.176082 </threshold>
						<split pos="left">
							<output> 1.3045222759246826 </output>
						</split>
						<split pos="right">
							<output> 0.1977364718914032 </output>
						</split>
					</split>
				</split>
				<split pos="right">
					<output> 1.2369112968444824 </output>
				</split>
			</split>
			<split pos="right">
				<feature> 13 </feature>
				<threshold> 0.0 </threshold>
				<split pos="left">
					<feature> 5 </feature>
					<threshold> 6.426594 </threshold>
					<split pos="left">
						<output> 0.9604356288909912 </output>
					</split>
					<split pos="right">
						<feature> 6 </feature>
						<threshold> 0.03892244 </threshold>
						<split pos="left">
							<output> 1.5538241863250732 </output>
						</split>
						<split pos="right">
							<output> 0.7490583062171936 </output>
						</split>
					</split>
				</split>
				<split pos="right">
					<output> 0.03364739194512367 </output>
				</split>
			</split>
		</split>
	</tree>
	<tree id="7" weight="0.1">
		<split>
			<feature> 22 </feature>
			<threshold> 0.0 </threshold>
			<split pos="left">
				<feature> 1 </feature>
				<threshold> 15.123192 </threshold>
				<split pos="left">
					<feature> 3 </feature>
					<threshold> 7.946692 </threshold>
					<split pos="left">
						<feature> 3 </feature>
						<threshold> 7.4586844 </threshold>
						<split pos="left">
							<feature> 3 </feature>
							<threshold> 7.367472 </threshold>
							<split pos="left">
								<output> -0.4178713858127594 </output>
							</split>
							<split pos="right">
								<output> 0.46020805835723877 </output>
							</split>
						</split>
						<split pos="right">
							<output> -1.3762695789337158 </output>
						</split>
					</split>
					<split pos="right">
						<feature> 1 </feature>
						<threshold> 8.176082 </threshold>
						<split pos="left">
							<output> 1.2453957796096802 </output>
						</split>
						<split pos="right">
							<output> 0.0290385652333498 </output>
						</split>
					</split>
				</split>
				<split pos="right">
					<output> 1.1739438772201538 </output>
				</split>
			</split>
			<split pos="right">
				<feature> 13 </feature>
				<threshold> 0.0 </threshold>
				<split pos="left">
					<feature> 6 </feature>
					<threshold> 0.03892244 </threshold>
					<split pos="left">
						<feature> 6 </feature>
						<threshold> 0.025968777 </threshold>
						<split pos="left">
							<output> 0.46183353662490845 </output>
						</split>
						<split pos="right">
							<output> 1.4577698707580566 </output>
						</split>
					</split>
					<split pos="right">
						<output> 0.7648121118545532 </output>
					</split>
				</split>
				<split pos="right">
					<output> -0.012989507988095284 </output>
				</split>
			</split>
		</split>
	</tree>
	<tree id="8" weight="0.1">
		<split>
			<feature> 22 </feature>
			<threshold> 0.0 </threshold>
			<split pos="left">
				<feature> 1 </feature>
				<threshold> 15.123192 </threshold>
				<split pos="left">
					<feature> 3 </feature>
					<threshold> 7.946692 </threshold>
					<split pos="left">
						<feature> 3 </feature>
						<threshold> 7.552446 </threshold>
						<split pos="left">
							<feature> 3 </feature>
							<threshold> 7.367472 </threshold>
							<split pos="left">
								<output> -0.36581531167030334 </output>
							</split>
							<split pos="right">
								<output> 0.3948611915111542 </output>
							</split>
						</split>
						<split pos="right">
							<output> -1.6001228094100952 </output>
						</split>
					</split>
					<split pos="right">
						<feature> 1 </feature>
						<threshold> 8.27604 </threshold>
						<split pos="left">
							<output> 1.1970523595809937 </output>
						</split>
						<split pos="right">
							<output> -0.1379326432943344 </output>
						</split>
					</split>
				</split>
				<split pos="right">
					<output> 1.1171371936798096 </output>
				</split>
			</split>
			<split pos="right">
				<feature> 15 </feature>
				<threshold> 0.0 </threshold>
				<split pos="left">
					<feature> 6 </feature>
					<threshold> 0.03892244 </threshold>
					<split pos="left">
						<feature> 6 </feature>
						<threshold> 0.02434957 </threshold>
						<split pos="left">
							<output> 0.15872563421726227 </output>
						</split>
						<split pos="right">
							<output> 1.372664213180542 </output>
						</split>
					</split>
					<split pos="right">
						<output> 0.04814545810222626 </output>
					</split>
				</split>
				<split pos="right">
					<output> 1.2115254402160645 </output>
				</split>
			</split>
		</split>
	</tree>
	<tree id="9" weight="0.1">
		<split>
			<feature> 22 </feature>
			<threshold> 0.0 </threshold>
			<split pos="left">
				<feature> 1 </feature>
				<threshold> 15.123192 </threshold>
				<split pos="left">
					<feature> 3 </feature>
					<threshold> 8.851137 </threshold>
					<split pos="left">
						<feature> 3 </feature>
						<threshold> 7.946692 </threshold>
						<split pos="left">
							<feature> 3 </feature>
							<threshold> 7.4586844 </threshold>
							<split pos="left">
								<feature> 3 </feature>
								<threshold> 7.367472 </threshold>
								<split pos="left">
									<output> -0.3045673668384552 </output>
								</split>
								<split pos="right">
									<output> 0.34979620575904846 </output>
								</split>
							</split>
							<split pos="right">
								<output> -1.1197975873947144 </output>
							</split>
						</split>
						<split pos="right">
							<output> 0.666777491569519 </output>
						</split>
					</split>
					<split pos="right">
						<output> -0.6128436923027039 </output>
					</split>
				</split>
				<split pos="right">
					<output> 1.06807541847229 </output>
				</split>
			</split>
			<split pos="right">
				<feature> 5 </feature>
				<threshold> 12.478826 </threshold>
				<split pos="left">
					<feature> 1 </feature>
					<threshold> 11.974502 </threshold>
					<split pos="left">
						<feature> 15 </feature>
						<threshold> 0.0 </threshold>
						<split pos="left">
							<output> 0.6579172015190125 </output>
						</split>
						<split pos="right">
							<output> 1.1435304880142212 </output>
						</split>
					</split>
					<split pos="right">
						<output> 1.359031081199646 </output>
					</split>
				</split>
				<split pos="right">
					<output> -0.9004926085472107 </output>
				</split>
			</split>
		</split>
	</tree>
	<tree id="10" weight="0.1">
		<split>
			<feature> 22 </feature>
			<threshold> 0.0 </threshold>
			<split pos="left">
				<feature> 1 </feature>
				<threshold> 15.123192 </threshold>
				<split pos="left">
					<feature> 3 </feature>
					<threshold> 7.946692 </threshold>
					<split pos="left">
						<feature> 21 </feature>
						<threshold> 0.0 </threshold>
						<split pos="left">
							<feature> 3 </feature>
							<threshold> 6.5255065 </threshold>
							<split pos="left">
								<output> -0.34248417615890503 </output>
							</split>
							<split pos="right">
								<output> 0.28329047560691833 </output>
							</split>
						</split>
						<split pos="right">
							<output> -1.1355700492858887 </output>
						</split>
					</split>
					<split pos="right">
						<feature> 1 </feature>
						<threshold> 8.176082 </threshold>
						<split pos="left">
							<output> 1.134357213973999 </output>
						</split>
						<split pos="right">
							<output> 0.21370510756969452 </output>
						</split>
					</split>
				</split>
				<split pos="right">
					<output> 1.025036334991455 </output>
				</split>
			</split>
			<split pos="right">
				<feature> 15 </feature>
				<threshold> 0.0 </threshold>
				<split pos="left">
					<feature> 6 </feature>
					<threshold> 0.03892244 </threshold>
					<split pos="left">
						<feature> 6 </feature>
						<threshold> 0.02434957 </threshold>
						<split pos="left">
							<output> 0.1268298476934433 </output>
						</split>
						<split pos="right">
							<output> 1.265809416770935 </output>
						</split>
					</split>
					<split pos="right">
						<output> -0.19274429976940155 </output>
					</split>
				</split>
				<split pos="right">
					<output> 1.0860358476638794 </output>
				</split>
			</split>
		</split>
	</tree>
	<tree id="11" weight="0.1">
		<split>
			<feature> 22 </feature>
			<threshold> 0.0 </threshold>
			<split pos="left">
				<feature> 1 </feature>
				<threshold> 15.123192 </threshold>
				<split pos="left">
					<feature> 3 </feature>
					<threshold> 7.946692 </threshold>
					<split pos="left">
						<feature> 24 </feature>
						<threshold> 0.0 </threshold>
						<split pos="left">
							<feature> 4 </feature>
							<threshold> 2.6561263 </threshold>
							<split pos="left">
								<feature> 4 </feature>
								<threshold> 2.6095278 </threshold>
								<split pos="left">
									<feature> 3 </feature>
									<threshold> 7.4586844 </threshold>
									<split pos="left">
										<feature> 3 </feature>
										<threshold> 7.367472 </threshold>
										<split pos="left">
											<output> -0.3277335464954376 </output>
										</split>
										<split pos="right">
											<output> 0.2634342908859253 </output>
										</split>
									</split>
									<split pos="right">
										<output> -1.1480861902236938 </output>
									</split>
								</split>
								<split pos="right">
									<output> 1.490134596824646 </output>
								</split>
							</split>
							<split pos="right">
								<output> -1.7172271013259888 </output>
							</split>
						</split>
						<split pos="right">
							<output> 0.7042145729064941 </output>
						</split>
					</split>
					<split pos="right">
						<output> 0.45223039388656616 </output>
					</split>
				</split>
				<split pos="right">
					<output> 0.981969952583313 </output>
				</split>
			</split>
			<split pos="right">
				<feature> 15 </feature>
				<threshold> 0.0 </threshold>
				<split pos="left">
					<output> 0.44869351387023926 </output>
				</split>
				<split pos="right">
					<output> 1.0335309505462646 </output>
				</split>
			</split>
		</split>
	</tree>
	<tree id="12" weight="0.1">
		<split>
			<feature> 22 </feature>
			<threshold> 0.0 </threshold>
			<split pos="left">
				<feature> 1 </feature>
				<threshold> 15.123192 </threshold>
				<split pos="left">
					<feature> 3 </feature>
					<threshold> 7.946692 </threshold>
					<split pos="left">
						<feature> 4 </feature>
						<threshold> 2.6095278 </threshold>
						<split pos="left">
							<feature> 6 </feature>
							<threshold> 0.16360128 </threshold>
							<split pos="left">
								<feature> 3 </feature>
								<threshold> 7.367472 </threshold>
								<split pos="left">
									<output> -0.3585244119167328 </output>
								</split>
								<split pos="right">
									<output> 0.2838526666164398 </output>
								</split>
							</split>
							<split pos="right">
								<output> 0.36305612325668335 </output>
							</split>
						</split>
						<split pos="right">
							<output> 1.0283746719360352 </output>
						</split>
					</split>
					<split pos="right">
						<output> 0.3188004493713379 </output>
					</split>
				</split>
				<split pos="right">
					<output> 0.9437331557273865 </output>
				</split>
			</split>
			<split pos="right">
				<feature> 6 </feature>
				<threshold> 0.011395915 </threshold>
				<split pos="left">
					<output> -2.9273688793182373 </output>
				</split>
				<split pos="right">
					<feature> 13 </feature>
					<threshold> 0.0 </threshold>
					<split pos="left">
						<feature> 6 </feature>
						<threshold> 0.03892244 </threshold>
						<split pos="left">
							<output> 1.0969606637954712 </output>
						</split>
						<split pos="right">
							<output> 0.28314831852912903 </output>
						</split>
					</split>
					<split pos="right">
						<output> -0.34020379185676575 </output>
					</split>
				</split>
			</split>
		</split>
	</tree>
	<tree id="13" weight="0.1">
		<split>
			<feature> 1 </feature>
			<threshold> 15.123192 </threshold>
			<split pos="left">
				<feature> 22 </feature>
				<threshold> 0.0 </threshold>
				<split pos="left">
					<feature> 3 </feature>
					<threshold> 7.946692 </threshold>
					<split pos="left">
						<feature> 24 </feature>
						<threshold> 0.0 </threshold>
						<split pos="left">
							<feature> 4 </feature>
							<threshold> 2.6561263 </threshold>
							<split pos="left">
								<feature> 4 </feature>
								<threshold> 2.6095278 </threshold>
								<split pos="left">
									<feature> 1 </feature>
									<threshold> 5.52716 </threshold>
									<split pos="left">
										<output> -0.5737669467926025 </output>
									</split>
									<split pos="right">
										<feature> 1 </feature>
										<threshold> 6.9265914 </threshold>
										<split pos="left">
											<output> 0.2346535623073578 </output>
										</split>
										<split pos="right">
											<output> -0.3466259241104126 </output>
										</split>
									</split>
								</split>
								<split pos="right">
									<output> 1.2886844873428345 </output>
								</split>
							</split>
							<split pos="right">
								<output> -1.7479432821273804 </output>
							</split>
						</split>
						<split pos="right">
							<output> 0.7197209000587463 </output>
						</split>
					</split>
					<split pos="right">
						<output> 0.26782453060150146 </output>
					</split>
				</split>
				<split pos="right">
					<feature> 5 </feature>
					<threshold> 12.354037 </threshold>
					<split pos="left">
						<output> 0.5388457179069519 </output>
					</split>
					<split pos="right">
						<output> -1.716128945350647 </output>
					</split>
				</split>
			</split>
			<split pos="right">
				<output> 0.9058383107185364 </output>
			</split>
		</split>
	</tree>
	<tree id="14" weight="0.1">
		<split>
			<feature> 5 </feature>
			<threshold> 15.161774 </threshold>
			<split pos="left">
				<feature> 3 </feature>
				<threshold> 10.915018 </threshold>
				<split pos="left">
					<feature> 22 </feature>
					<threshold> 0.0 </threshold>
					<split pos="left">
						<feature> 3 </feature>
						<threshold> 10.576802 </threshold>
						<split pos="left">
							<feature> 24 </feature>
							<threshold> 0.0 </threshold>
							<split pos="left">
								<feature> 3 </feature>
								<threshold> 10.504219 </threshold>
								<split pos="left">
									<feature> 3 </feature>
									<threshold> 9.991327 </threshold>
									<split pos="left">
										<feature> 3 </feature>
										<threshold> 8.851137 </threshold>
										<split pos="left">
											<feature> 3 </feature>
											<threshold> 8.526915 </threshold>
											<split pos="left">
												<output> -0.17722247540950775 </output>
											</split>
											<split pos="right">
												<output> 1.2015794515609741 </output>
											</split>
										</split>
										<split pos="right">
											<output> -2.3957998752593994 </output>
										</split>
									</split>
									<split pos="right">
										<output> 1.1903395652770996 </output>
									</split>
								</split>
								<split pos="right">
									<output> -2.4564294815063477 </output>
								</split>
							</split>
							<split pos="right">
								<output> 0.9995349049568176 </output>
							</split>
						</split>
						<split pos="right">
							<output> 0.8633496165275574 </output>
						</split>
					</split>
					<split pos="right">
						<output> 0.4456700086593628 </output>
					</split>
				</split>
				<split pos="right">
					<output> -2.791984796524048 </output>
				</split>
			</split>
			<split pos="right">
				<output> 0.8690446019172668 </output>
			</split>
		</split>
	</tree>
	<tree id="15" weight="0.1">
		<split>
			<feature> 24 </feature>
			<threshold> 0.0 </threshold>
			<split pos="left">
				<feature> 22 </feature>
				<threshold> 0.0 </threshold>
				<split pos="left">
					<feature> 5 </feature>
					<threshold> 15.161774 </threshold>
					<split pos="left">
						<feature> 3 </feature>
						<threshold> 7.946692 </threshold>
						<split pos="left">
							<feature> 1 </feature>
							<threshold> 5.52716 </threshold>
							<split pos="left">
								<output> -0.6643949151039124 </output>
							</split>
							<split pos="right">
								<feature> 1 </feature>
								<threshold> 5.57714 </threshold>
								<split pos="left">
									<output> 0.958850085735321 </output>
								</split>
								<split pos="right">
									<feature> 6 </feature>
									<threshold> 0.29799572 </threshold>
									<split pos="left">
										<output> -0.13637074828147888 </output>
									</split>
									<split pos="right">
										<output> -0.8942229151725769 </output>
									</split>
								</split>
							</split>
						</split>
						<split pos="right">
							<output> 0.2575399875640869 </output>
						</split>
					</split>
					<split pos="right">
						<output> 0.8367903232574463 </output>
					</split>
				</split>
				<split pos="right">
					<output> 0.3831578195095062 </output>
				</split>
			</split>
			<split pos="right">
				<feature> 5 </feature>
				<threshold> 0.0 </threshold>
				<split pos="left">
					<feature> 1 </feature>
					<threshold> 5.7770586 </threshold>
					<split pos="left">
						<output> 1.7821675539016724 </output>
					</split>
					<split pos="right">
						<output> -1.0240788459777832 </output>
					</split>
				</split>
				<split pos="right">
					<output> 0.16859297454357147 </output>
				</split>
			</split>
		</split>
	</tree>
	<tree id="16" weight="0.1">
		<split>
			<feature> 24 </feature>
			<threshold> 0.0 </threshold>
			<split pos="left">
				<feature> 22 </feature>
				<threshold> 0.0 </threshold>
				<split pos="left">
					<feature> 5 </feature>
					<threshold> 15.161774 </threshold>
					<split pos="left">
						<feature> 1 </feature>
						<threshold> 5.52716 </threshold>
						<split pos="left">
							<output> -0.7553924322128296 </output>
						</split>
						<split pos="right">
							<feature> 1 </feature>
							<threshold> 5.57714 </threshold>
							<split pos="left">
								<output> 0.8898714184761047 </output>
							</split>
							<split pos="right">
								<feature> 3 </feature>
								<threshold> 10.576802 </threshold>
								<split pos="left">
									<feature> 3 </feature>
									<threshold> 10.504219 </threshold>
									<split pos="left">
										<feature> 3 </feature>
										<threshold> 6.5255065 </threshold>
										<split pos="left">
											<output> -0.27867963910102844 </output>
										</split>
										<split pos="right">
											<output> 0.2012512981891632 </output>
										</split>
									</split>
									<split pos="right">
										<output> -2.1592209339141846 </output>
									</split>
								</split>
								<split pos="right">
									<output> 0.7091256976127625 </output>
								</split>
							</split>
						</split>
					</split>
					<split pos="right">
						<output> 0.8057314157485962 </output>
					</split>
				</split>
				<split pos="right">
					<output> 0.32060861587524414 </output>
				</split>
			</split>
			<split pos="right">
				<feature> 5 </feature>
				<threshold> 0.0 </threshold>
				<split pos="left">
					<output> 1.6046319007873535 </output>
				</split>
				<split pos="right">
					<output> 0.14620232582092285 </output>
				</split>
			</split>
		</split>
	</tree>
	<tree id="17" weight="0.1">
		<split>
			<feature> 24 </feature>
			<threshold> 0.0 </threshold>
			<split pos="left">
				<feature> 5 </feature>
				<threshold> 15.161774 </threshold>
				<split pos="left">
					<feature> 22 </feature>
					<threshold> 0.0 </threshold>
					<split pos="left">
						<feature> 1 </feature>
						<threshold> 5.52716 </threshold>
						<split pos="left">
							<output> -0.6543592810630798 </output>
						</split>
						<split pos="right">
							<feature> 1 </feature>
							<threshold> 5.57714 </threshold>
							<split pos="left">
								<output> 0.6689876914024353 </output>
							</split>
							<split pos="right">
								<feature> 3 </feature>
								<threshold> 10.576802 </threshold>
								<split pos="left">
									<feature> 3 </feature>
									<threshold> 10.504219 </threshold>
									<split pos="left">
										<feature> 3 </feature>
										<threshold> 6.4444942 </threshold>
										<split pos="left">
											<output> -0.23486080765724182 </output>
										</split>
										<split pos="right">
											<output> 0.15087293088436127 </output>
										</split>
									</split>
									<split pos="right">
										<output> -1.8982715606689453 </output>
									</split>
								</split>
								<split pos="right">
									<output> 0.6438646912574768 </output>
								</split>
							</split>
						</split>
					</split>
					<split pos="right">
						<output> 0.27303916215896606 </output>
					</split>
				</split>
				<split pos="right">
					<output> 0.7697728872299194 </output>
				</split>
			</split>
			<split pos="right">
				<feature> 5 </feature>
				<threshold> 3.1820984 </threshold>
				<split pos="left">
					<output> 1.4866138696670532 </output>
				</split>
				<split pos="right">
					<output> 0.1040651798248291 </output>
				</split>
			</split>
		</split>
	</tree>
	<tree id="18" weight="0.1">
		<split>
			<feature> 24 </feature>
			<threshold> 0.0 </threshold>
			<split pos="left">
				<feature> 1 </feature>
				<threshold> 5.427201 </threshold>
				<split pos="left">
					<output> -0.6373997926712036 </output>
				</split>
				<split pos="right">
					<feature> 22 </feature>
					<threshold> 0.0 </threshold>
					<split pos="left">
						<feature> 5 </feature>
						<threshold> 15.161774 </threshold>
						<split pos="left">
							<feature> 1 </feature>
							<threshold> 5.57714 </threshold>
							<split pos="left">
								<output> 0.3904040455818176 </output>
							</split>
							<split pos="right">
								<feature> 3 </feature>
								<threshold> 10.576802 </threshold>
								<split pos="left">
									<feature> 3 </feature>
									<threshold> 8.173928 </threshold>
									<split pos="left">
										<feature> 3 </feature>
										<threshold> 8.170231 </threshold>
										<split pos="left">
											<output> -0.10222853720188141 </output>
										</split>
										<split pos="right">
											<output> 1.1175414323806763 </output>
										</split>
									</split>
									<split pos="right">
										<output> -0.35523393750190735 </output>
									</split>
								</split>
								<split pos="right">
									<output> 0.5926397442817688 </output>
								</split>
							</split>
						</split>
						<split pos="right">
							<output> 0.734782874584198 </output>
						</split>
					</split>
					<split pos="right">
						<output> 0.31542739272117615 </output>
					</split>
				</split>
			</split>
			<split pos="right">
				<feature> 5 </feature>
				<threshold> 3.431675 </threshold>
				<split pos="left">
					<output> 1.143805980682373 </output>
				</split>
				<split pos="right">
					<output> 0.31715959310531616 </output>
				</split>
			</split>
		</split>
	</tree>
	<tree id="19" weight="0.1">
		<split>
			<feature> 24 </feature>
			<threshold> 0.0 </threshold>
			<split pos="left">
				<feature> 13 </feature>
				<threshold> 0.0 </threshold>
				<split pos="left">
					<feature> 22 </feature>
					<threshold> 0.0 </threshold>
					<split pos="left">
						<feature> 1 </feature>
						<threshold> 15.023233 </threshold>
						<split pos="left">
							<feature> 3 </feature>
							<threshold> 9.991327 </threshold>
							<split pos="left">
								<feature> 3 </feature>
								<threshold> 8.173928 </threshold>
								<split pos="left">
									<feature> 3 </feature>
									<threshold> 8.170231 </threshold>
									<split pos="left">
										<feature> 5 </feature>
										<threshold> 5.4906816 </threshold>
										<split pos="left">
											<output> -0.3407132029533386 </output>
										</split>
										<split pos="right">
											<feature> 5 </feature>
											<threshold> 5.61547 </threshold>
											<split pos="left">
												<output> 1.0080654621124268 </output>
											</split>
											<split pos="right">
												<output> 0.0016071093268692493 </output>
											</split>
										</split>
									</split>
									<split pos="right">
										<output> 1.10269296169281 </output>
									</split>
								</split>
								<split pos="right">
									<output> -0.7067177891731262 </output>
								</split>
							</split>
							<split pos="right">
								<output> 0.7501218318939209 </output>
							</split>
						</split>
						<split pos="right">
							<output> 1.0983877182006836 </output>
						</split>
					</split>
					<split pos="right">
						<output> 0.345348984003067 </output>
					</split>
				</split>
				<split pos="right">
					<output> -0.6013755202293396 </output>
				</split>
			</split>
			<split pos="right">
				<output> 0.6342493891716003 </output>
			</split>
		</split>
	</tree>
	<tree id="20" weight="0.1">
		<split>
			<feature> 1 </feature>
			<threshold> 15.123192 </threshold>
			<split pos="left">
				<feature> 24 </feature>
				<threshold> 0.0 </threshold>
				<split pos="left">
					<feature> 3 </feature>
					<threshold> 10.915018 </threshold>
					<split pos="left">
						<feature> 1 </feature>
						<threshold> 5.427201 </threshold>
						<split pos="left">
							<output> -0.596508264541626 </output>
						</split>
						<split pos="right">
							<feature> 1 </feature>
							<threshold> 5.57714 </threshold>
							<split pos="left">
								<output> 0.6130236983299255 </output>
							</split>
							<split pos="right">
								<feature> 3 </feature>
								<threshold> 10.576802 </threshold>
								<split pos="left">
									<feature> 12 </feature>
									<threshold> 0.0 </threshold>
									<split pos="left">
										<feature> 22 </feature>
										<threshold> 0.0 </threshold>
										<split pos="left">
											<feature> 6 </feature>
											<threshold> 0.07130659 </threshold>
											<split pos="left">
												<output> 0.04393233731389046 </output>
											</split>
											<split pos="right">
												<output> -0.4253876507282257 </output>
											</split>
										</split>
										<split pos="right">
											<output> -0.6141991019248962 </output>
										</split>
									</split>
									<split pos="right">
										<output> 0.43481042981147766 </output>
									</split>
								</split>
								<split pos="right">
									<output> 0.6425172090530396 </output>
								</split>
							</split>
						</split>
					</split>
					<split pos="right">
						<output> -2.6110482215881348 </output>
					</split>
				</split>
				<split pos="right">
					<output> 0.5622931122779846 </output>
				</split>
			</split>
			<split pos="right">
				<output> 0.8979232311248779 </output>
			</split>
		</split>
	</tree>
	<tree id="21" weight="0.1">
		<split>
			<feature> 1 </feature>
			<threshold> 15.123192 </threshold>
			<split pos="left">
				<feature> 6 </feature>
				<threshold> 0.030826397 </threshold>
				<split pos="left">
					<feature> 3 </feature>
					<threshold> 8.418961 </threshold>
					<split pos="left">
						<output> -0.424290269613266 </output>
					</split>
					<split pos="right">
						<output> 0.9135677814483643 </output>
					</split>
				</split>
				<split pos="right">
					<feature> 6 </feature>
					<threshold> 0.04054165 </threshold>
					<split pos="left">
						<feature> 24 </feature>
						<threshold> 0.0 </threshold>
						<split pos="left">
							<output> 0.5560018420219421 </output>
						</split>
						<split pos="right">
							<output> 1.3153327703475952 </output>
						</split>
					</split>
					<split pos="right">
						<feature> 3 </feature>
						<threshold> 8.418961 </threshold>
						<split pos="left">
							<feature> 3 </feature>
							<threshold> 7.552446 </threshold>
							<split pos="left">
								<feature> 1 </feature>
								<threshold> 5.57714 </threshold>
								<split pos="left">
									<feature> 1 </feature>
									<threshold> 5.52716 </threshold>
									<split pos="left">
										<output> -3.580833144951612E-4 </output>
									</split>
									<split pos="right">
										<output> 1.0084292888641357 </output>
									</split>
								</split>
								<split pos="right">
									<output> -0.3246079087257385 </output>
								</split>
							</split>
							<split pos="right">
								<output> 1.0469228029251099 </output>
							</split>
						</split>
						<split pos="right">
							<output> -2.1086971759796143 </output>
						</split>
					</split>
				</split>
			</split>
			<split pos="right">
				<output> 0.8721688389778137 </output>
			</split>
		</split>
	</tree>
	<tree id="22" weight="0.1">
		<split>
			<feature> 24 </feature>
			<threshold> 0.0 </threshold>
			<split pos="left">
				<feature> 3 </feature>
				<threshold> 7.946692 </threshold>
				<split pos="left">
					<feature> 1 </feature>
					<threshold> 15.123192 </threshold>
					<split pos="left">
						<feature> 6 </feature>
						<threshold> 0.255896 </threshold>
						<split pos="left">
							<feature> 22 </feature>
							<threshold> 0.0 </threshold>
							<split pos="left">
								<feature> 5 </feature>
								<threshold> 5.4906816 </threshold>
								<split pos="left">
									<output> -0.5283090472221375 </output>
								</split>
								<split pos="right">
									<feature> 3 </feature>
									<threshold> 7.367472 </threshold>
									<split pos="left">
										<feature> 1 </feature>
										<threshold> 5.57714 </threshold>
										<split pos="left">
											<output> 0.5158270001411438 </output>
										</split>
										<split pos="right">
											<output> -0.36622902750968933 </output>
										</split>
									</split>
									<split pos="right">
										<output> 1.121769905090332 </output>
									</split>
								</split>
							</split>
							<split pos="right">
								<output> 0.22249971330165863 </output>
							</split>
						</split>
						<split pos="right">
							<output> 0.8906903266906738 </output>
						</split>
					</split>
					<split pos="right">
						<output> 0.8453502058982849 </output>
					</split>
				</split>
				<split pos="right">
					<output> 0.5232043266296387 </output>
				</split>
			</split>
			<split pos="right">
				<feature> 5 </feature>
				<threshold> 0.0 </threshold>
				<split pos="left">
					<output> 1.0313639640808105 </output>
				</split>
				<split pos="right">
					<output> 0.10858774930238724 </output>
				</split>
			</split>
		</split>
	</tree>
	<tree id="23" weight="0.1">
		<split>
			<feature> 24 </feature>
			<threshold> 0.0 </threshold>
			<split pos="left">
				<feature> 3 </feature>
				<threshold> 7.946692 </threshold>
				<split pos="left">
					<feature> 3 </feature>
					<threshold> 7.367472 </threshold>
					<split pos="left">
						<feature> 1 </feature>
						<threshold> 15.123192 </threshold>
						<split pos="left">
							<feature> 6 </feature>
							<threshold> 0.255896 </threshold>
							<split pos="left">
								<feature> 22 </feature>
								<threshold> 0.0 </threshold>
								<split pos="left">
									<feature> 20 </feature>
									<threshold> 0.0 </threshold>
									<split pos="left">
										<feature> 4 </feature>
										<threshold> 2.5046813 </threshold>
										<split pos="left">
											<output> -0.10540511459112167 </output>
										</split>
										<split pos="right">
											<output> 1.059075951576233 </output>
										</split>
									</split>
									<split pos="right">
										<output> -0.8720175623893738 </output>
									</split>
								</split>
								<split pos="right">
									<output> 0.2222687005996704 </output>
								</split>
							</split>
							<split pos="right">
								<output> 0.7248126864433289 </output>
							</split>
						</split>
						<split pos="right">
							<output> 0.8176051378250122 </output>
						</split>
					</split>
					<split pos="right">
						<output> -0.5863351821899414 </output>
					</split>
				</split>
				<split pos="right">
					<output> 0.47061342000961304 </output>
				</split>
			</split>
			<split pos="right">
				<feature> 5 </feature>
				<threshold> 2.558157 </threshold>
				<split pos="left">
					<output> 0.977384626865387 </output>
				</split>
				<split pos="right">
					<output> 0.12539508938789368 </output>
				</split>
			</split>
		</split>
	</tree>
	<tree id="24" weight="0.1">
		<split>
			<feature> 24 </feature>
			<threshold> 0.0 </threshold>
			<split pos="left">
				<feature> 4 </feature>
				<threshold> 0.9785722 </threshold>
				<split pos="left">
					<feature> 1 </feature>
					<threshold> 15.023233 </threshold>
					<split pos="left">
						<feature> 4 </feature>
						<threshold> 0.9319735 </threshold>
						<split pos="left">
							<feature> 6 </feature>
							<threshold> 0.03730323 </threshold>
							<split pos="left">
								<output> -0.29507124423980713 </output>
							</split>
							<split pos="right">
								<feature> 6 </feature>
								<threshold> 0.03892244 </threshold>
								<split pos="left">
									<output> 0.9338654279708862 </output>
								</split>
								<split pos="right">
									<feature> 3 </feature>
									<threshold> 7.367472 </threshold>
									<split pos="left">
										<output> -0.023688610643148422 </output>
									</split>
									<split pos="right">
										<output> 0.4935865104198456 </output>
									</split>
								</split>
							</split>
						</split>
						<split pos="right">
							<output> 0.8426306843757629 </output>
						</split>
					</split>
					<split pos="right">
						<output> 1.0624021291732788 </output>
					</split>
				</split>
				<split pos="right">
					<feature> 3 </feature>
					<threshold> 7.367472 </threshold>
					<split pos="left">
						<output> -0.2506277561187744 </output>
					</split>
					<split pos="right">
						<output> -2.5636608600616455 </output>
					</split>
				</split>
			</split>
			<split pos="right">
				<feature> 5 </feature>
				<threshold> 3.1820984 </threshold>
				<split pos="left">
					<output> 0.9357662200927734 </output>
				</split>
				<split pos="right">
					<output> 0.04850880801677704 </output>
				</split>
			</split>
		</split>
	</tree>
	<tree id="25" weight="0.1">
		<split>
			<feature> 24 </feature>
			<threshold> 0.0 </threshold>
			<split pos="left">
				<feature> 3 </feature>
				<threshold> 10.915018 </threshold>
				<split pos="left">
					<feature> 3 </feature>
					<threshold> 7.946692 </threshold>
					<split pos="left">
						<feature> 20 </feature>
						<threshold> 0.0 </threshold>
						<split pos="left">
							<feature> 5 </feature>
							<threshold> 15.036985 </threshold>
							<split pos="left">
								<feature> 10 </feature>
								<threshold> 0.0 </threshold>
								<split pos="left">
									<feature> 9 </feature>
									<threshold> 0.0 </threshold>
									<split pos="left">
										<feature> 11 </feature>
										<threshold> 0.0 </threshold>
										<split pos="left">
											<output> -0.03812072053551674 </output>
										</split>
										<split pos="right">
											<feature> 6 </feature>
											<threshold> 0.032445606 </threshold>
											<split pos="left">
												<output> -0.25198790431022644 </output>
											</split>
											<split pos="right">
												<output> 0.6711205840110779 </output>
											</split>
										</split>
									</split>
									<split pos="right">
										<output> -0.6348766088485718 </output>
									</split>
								</split>
								<split pos="right">
									<output> -1.2176507711410522 </output>
								</split>
							</split>
							<split pos="right">
								<output> 0.7662720084190369 </output>
							</split>
						</split>
						<split pos="right">
							<output> -0.8090420961380005 </output>
						</split>
					</split>
					<split pos="right">
						<output> 0.3151003122329712 </output>
					</split>
				</split>
				<split pos="right">
					<output> -2.6484367847442627 </output>
				</split>
			</split>
			<split pos="right">
				<output> 0.48948049545288086 </output>
			</split>
		</split>
	</tree>
	<tree id="26" weight="0.1">
		<split>
			<feature> 24 </feature>
			<threshold> 0.0 </threshold>
			<split pos="left">
				<feature> 1 </feature>
				<threshold> 5.427201 </threshold>
				<split pos="left">
					<output> -0.5938846468925476 </output>
				</split>
				<split pos="right">
					<feature> 1 </feature>
					<threshold> 5.57714 </threshold>
					<split pos="left">
						<feature> 3 </feature>
						<threshold> 5.431837 </threshold>
						<split pos="left">
							<feature> 22 </feature>
							<threshold> 0.0 </threshold>
							<split pos="left">
								<feature> 4 </feature>
								<threshold> 0.9785722 </threshold>
								<split pos="left">
									<output> 0.8472267389297485 </output>
								</split>
								<split pos="right">
									<output> -0.29118430614471436 </output>
								</split>
							</split>
							<split pos="right">
								<output> 1.0051199197769165 </output>
							</split>
						</split>
						<split pos="right">
							<output> 1.306439995765686 </output>
						</split>
					</split>
					<split pos="right">
						<feature> 6 </feature>
						<threshold> 0.043780066 </threshold>
						<split pos="left">
							<feature> 6 </feature>
							<threshold> 0.03730323 </threshold>
							<split pos="left">
								<output> -0.06195332482457161 </output>
							</split>
							<split pos="right">
								<output> 0.7413204312324524 </output>
							</split>
						</split>
						<split pos="right">
							<output> -0.34649041295051575 </output>
						</split>
					</split>
				</split>
			</split>
			<split pos="right">
				<feature> 5 </feature>
				<threshold> 0.0 </threshold>
				<split pos="left">
					<output> 0.867525577545166 </output>
				</split>
				<split pos="right">
					<output> 0.004286397248506546 </output>
				</split>
			</split>
		</split>
	</tree>
	<tree id="27" weight="0.1">
		<split>
			<feature> 24 </feature>
			<threshold> 0.0 </threshold>
			<split pos="left">
				<feature> 13 </feature>
				<threshold> 0.0 </threshold>
				<split pos="left">
					<feature> 22 </feature>
					<threshold> 0.0 </threshold>
					<split pos="left">
						<feature> 5 </feature>
						<threshold> 15.036985 </threshold>
						<split pos="left">
							<feature> 6 </feature>
							<threshold> 0.255896 </threshold>
							<split pos="left">
								<feature> 4 </feature>
								<threshold> 2.1668427 </threshold>
								<split pos="left">
									<feature> 6 </feature>
									<threshold> 0.2380847 </threshold>
									<split pos="left">
										<feature> 3 </feature>
										<threshold> 9.991327 </threshold>
										<split pos="left">
											<feature> 3 </feature>
											<threshold> 8.851137 </threshold>
											<split pos="left">
												<output> -0.05721236392855644 </output>
											</split>
											<split pos="right">
												<output> -2.20932674407959 </output>
											</split>
										</split>
										<split pos="right">
											<output> 0.5594515800476074 </output>
										</split>
									</split>
									<split pos="right">
										<output> -1.7583571672439575 </output>
									</split>
								</split>
								<split pos="right">
									<output> 1.5889252424240112 </output>
								</split>
							</split>
							<split pos="right">
								<output> 0.6245086789131165 </output>
							</split>
						</split>
						<split pos="right">
							<output> 1.055265188217163 </output>
						</split>
					</split>
					<split pos="right">
						<output> 0.3831625282764435 </output>
					</split>
				</split>
				<split pos="right">
					<output> -0.5897719860076904 </output>
				</split>
			</split>
			<split pos="right">
				<output> 0.39778652787208557 </output>
			</split>
		</split>
	</tree>
	<tree id="28" weight="0.1">
		<split>
			<feature> 3 </feature>
			<threshold> 5.431837 </threshold>
			<split pos="left">
				<feature> 20 </feature>
				<threshold> 0.0 </threshold>
				<split pos="left">
					<feature> 1 </feature>
					<threshold> 3.4280162 </threshold>
					<split pos="left">
						<output> -2.832395553588867 </output>
					</split>
					<split pos="right">
						<feature> 5 </feature>
						<threshold> 15.036985 </threshold>
						<split pos="left">
							<feature> 4 </feature>
							<threshold> 2.5046813 </threshold>
							<split pos="left">
								<feature> 6 </feature>
								<threshold> 0.29799572 </threshold>
								<split pos="left">
									<feature> 24 </feature>
									<threshold> 0.0 </threshold>
									<split pos="left">
										<feature> 6 </feature>
										<threshold> 0.011395915 </threshold>
										<split pos="left">
											<output> -1.5113500356674194 </output>
										</split>
										<split pos="right">
											<output> 0.016644736751914024 </output>
										</split>
									</split>
									<split pos="right">
										<output> -0.597012996673584 </output>
									</split>
								</split>
								<split pos="right">
									<output> 1.2213966846466064 </output>
								</split>
							</split>
							<split pos="right">
								<output> 0.8783072829246521 </output>
							</split>
						</split>
						<split pos="right">
							<output> 0.7246171236038208 </output>
						</split>
					</split>
				</split>
				<split pos="right">
					<output> -0.9227309226989746 </output>
				</split>
			</split>
			<split pos="right">
				<feature> 24 </feature>
				<threshold> 0.0 </threshold>
				<split pos="left">
					<output> 0.14858216047286987 </output>
				</split>
				<split pos="right">
					<output> 0.8291381597518921 </output>
				</split>
			</split>
		</split>
	</tree>
	<tree id="29" weight="0.1">
		<split>
			<feature> 24 </feature>
			<threshold> 0.0 </threshold>
			<split pos="left">
				<feature> 3 </feature>
				<threshold> 7.946692 </threshold>
				<split pos="left">
					<feature> 20 </feature>
					<threshold> 0.0 </threshold>
					<split pos="left">
						<feature> 1 </feature>
						<threshold> 15.023233 </threshold>
						<split pos="left">
							<feature> 6 </feature>
							<threshold> 0.38867202 </threshold>
							<split pos="left">
								<feature> 6 </feature>
								<threshold> 0.35790685 </threshold>
								<split pos="left">
									<feature> 9 </feature>
									<threshold> 0.0 </threshold>
									<split pos="left">
										<feature> 14 </feature>
										<threshold> 0.0 </threshold>
										<split pos="left">
											<feature> 6 </feature>
											<threshold> 0.255896 </threshold>
											<split pos="left">
												<output> 0.2005673497915268 </output>
											</split>
											<split pos="right">
												<output> 1.0439114570617676 </output>
											</split>
										</split>
										<split pos="right">
											<output> -0.17013195157051086 </output>
										</split>
									</split>
									<split pos="right">
										<output> -0.5762179493904114 </output>
									</split>
								</split>
								<split pos="right">
									<output> -2.2038722038269043 </output>
								</split>
							</split>
							<split pos="right">
								<output> 1.3719485998153687 </output>
							</split>
						</split>
						<split pos="right">
							<output> 0.6997101902961731 </output>
						</split>
					</split>
					<split pos="right">
						<output> -0.8033050298690796 </output>
					</split>
				</split>
				<split pos="right">
					<output> 0.3085235059261322 </output>
				</split>
			</split>
			<split pos="right">
				<output> 0.36554673314094543 </output>
			</split>
		</split>
	</tree>
	<tree id="30" weight="0.1">
		<split>
			<feature> 3 </feature>
			<threshold> 7.946692 </threshold>
			<split pos="left">
				<feature> 6 </feature>
				<threshold> 0.31580713 </threshold>
				<split pos="left">
					<feature> 24 </feature>
					<threshold> 0.0 </threshold>
					<split pos="left">
						<feature> 13 </feature>
						<threshold> 0.0 </threshold>
						<split pos="left">
							<feature> 22 </feature>
							<threshold> 0.0 </threshold>
							<split pos="left">
								<feature> 1 </feature>
								<threshold> 15.023233 </threshold>
								<split pos="left">
									<feature> 4 </feature>
									<threshold> 2.2716892 </threshold>
									<split pos="left">
										<feature> 4 </feature>
										<threshold> 2.2017915 </threshold>
										<split pos="left">
											<feature> 4 </feature>
											<threshold> 2.1668427 </threshold>
											<split pos="left">
												<output> -0.10381463170051575 </output>
											</split>
											<split pos="right">
												<output> 1.8677239418029785 </output>
											</split>
										</split>
										<split pos="right">
											<output> -2.163527727127075 </output>
										</split>
									</split>
									<split pos="right">
										<output> 1.2555696964263916 </output>
									</split>
								</split>
								<split pos="right">
									<output> 1.0494730472564697 </output>
								</split>
							</split>
							<split pos="right">
								<output> 0.3623214364051819 </output>
							</split>
						</split>
						<split pos="right">
							<output> -0.6051558256149292 </output>
						</split>
					</split>
					<split pos="right">
						<output> 0.28939732909202576 </output>
					</split>
				</split>
				<split pos="right">
					<output> 0.6526066660881042 </output>
				</split>
			</split>
			<split pos="right">
				<output> 0.34094423055648804 </output>
			</split>
		</split>
	</tree>
	<tree id="31" weight="0.1">
		<split>
			<feature> 4 </feature>
			<threshold> 2.1668427 </threshold>
			<split pos="left">
				<feature> 6 </feature>
				<threshold> 0.255896 </threshold>
				<split pos="left">
					<feature> 1 </feature>
					<threshold> 15.023233 </threshold>
					<split pos="left">
						<feature> 4 </feature>
						<threshold> 0.9785722 </threshold>
						<split pos="left">
							<feature> 6 </feature>
							<threshold> 0.0729258 </threshold>
							<split pos="left">
								<feature> 24 </feature>
								<threshold> 0.0 </threshold>
								<split pos="left">
									<feature> 4 </feature>
									<threshold> 0.9319735 </threshold>
									<split pos="left">
										<feature> 3 </feature>
										<threshold> 7.367472 </threshold>
										<split pos="left">
											<feature> 1 </feature>
											<threshold> 13.074044 </threshold>
											<split pos="left">
												<output> -0.04857209324836731 </output>
											</split>
											<split pos="right">
												<output> -1.160107970237732 </output>
											</split>
										</split>
										<split pos="right">
											<output> 0.4173629879951477 </output>
										</split>
									</split>
									<split pos="right">
										<output> 0.9544436931610107 </output>
									</split>
								</split>
								<split pos="right">
									<output> 0.8977956175804138 </output>
								</split>
							</split>
							<split pos="right">
								<output> -0.3876488208770752 </output>
							</split>
						</split>
						<split pos="right">
							<output> -0.40500807762145996 </output>
						</split>
					</split>
					<split pos="right">
						<output> 1.0448402166366577 </output>
					</split>
				</split>
				<split pos="right">
					<output> 0.5534617304801941 </output>
				</split>
			</split>
			<split pos="right">
				<output> 0.8355261087417603 </output>
			</split>
		</split>
	</tree>
	<tree id="32" weight="0.1">
		<split>
			<feature> 6 </feature>
			<threshold> 0.31580713 </threshold>
			<split pos="left">
				<feature> 4 </feature>
				<threshold> 2.1668427 </threshold>
				<split pos="left">
					<feature> 4 </feature>
					<threshold> 0.9785722 </threshold>
					<split pos="left">
						<feature> 18 </feature>
						<threshold> 0.0 </threshold>
						<split pos="left">
							<feature> 24 </feature>
							<threshold> 0.0 </threshold>
							<split pos="left">
								<feature> 6 </feature>
								<threshold> 0.255896 </threshold>
								<split pos="left">
									<feature> 4 </feature>
									<threshold> 0.9319735 </threshold>
									<split pos="left">
										<feature> 1 </feature>
										<threshold> 15.023233 </threshold>
										<split pos="left">
											<feature> 6 </feature>
											<threshold> 0.06159136 </threshold>
											<split pos="left">
												<output> -0.13780230283737183 </output>
											</split>
											<split pos="right">
												<output> 0.2894517183303833 </output>
											</split>
										</split>
										<split pos="right">
											<output> 1.0446494817733765 </output>
										</split>
									</split>
									<split pos="right">
										<output> 0.6128066182136536 </output>
									</split>
								</split>
								<split pos="right">
									<output> 0.8040884733200073 </output>
								</split>
							</split>
							<split pos="right">
								<output> 0.8234670758247375 </output>
							</split>
						</split>
						<split pos="right">
							<output> -1.465335726737976 </output>
						</split>
					</split>
					<split pos="right">
						<output> -0.42649200558662415 </output>
					</split>
				</split>
				<split pos="right">
					<output> 0.8026164770126343 </output>
				</split>
			</split>
			<split pos="right">
				<output> 0.8231484293937683 </output>
			</split>
		</split>
	</tree>
	<tree id="33" weight="0.1">
		<split>
			<feature> 6 </feature>
			<threshold> 0.31580713 </threshold>
			<split pos="left">
				<feature> 4 </feature>
				<threshold> 2.1668427 </threshold>
				<split pos="left">
					<feature> 1 </feature>
					<threshold> 15.023233 </threshold>
					<split pos="left">
						<feature> 22 </feature>
						<threshold> 0.0 </threshold>
						<split pos="left">
							<feature> 6 </feature>
							<threshold> 0.07130659 </threshold>
							<split pos="left">
								<feature> 24 </feature>
								<threshold> 0.0 </threshold>
								<split pos="left">
									<feature> 3 </feature>
									<threshold> 7.367472 </threshold>
									<split pos="left">
										<feature> 4 </feature>
										<threshold> 0.9785722 </threshold>
										<split pos="left">
											<feature> 4 </feature>
											<threshold> 0.9319735 </threshold>
											<split pos="left">
												<output> -0.27808165550231934 </output>
											</split>
											<split pos="right">
												<output> 1.0146489143371582 </output>
											</split>
										</split>
										<split pos="right">
											<output> -0.39296919107437134 </output>
										</split>
									</split>
									<split pos="right">
										<output> 0.29572415351867676 </output>
									</split>
								</split>
								<split pos="right">
									<output> 0.5874184966087341 </output>
								</split>
							</split>
							<split pos="right">
								<output> -0.3981354534626007 </output>
							</split>
						</split>
						<split pos="right">
							<output> 0.18256857991218567 </output>
						</split>
					</split>
					<split pos="right">
						<output> 1.0447934865951538 </output>
					</split>
				</split>
				<split pos="right">
					<output> 0.7764322757720947 </output>
				</split>
			</split>
			<split pos="right">
				<output> 0.7605071067810059 </output>
			</split>
		</split>
	</tree>
	<tree id="34" weight="0.1">
		<split>
			<feature> 6 </feature>
			<threshold> 0.255896 </threshold>
			<split pos="left">
				<feature> 4 </feature>
				<threshold> 2.1668427 </threshold>
				<split pos="left">
					<feature> 6 </feature>
					<threshold> 0.008157502 </threshold>
					<split pos="left">
						<output> -2.2772507667541504 </output>
					</split>
					<split pos="right">
						<feature> 5 </feature>
						<threshold> 15.036985 </threshold>
						<split pos="left">
							<feature> 1 </feature>
							<threshold> 3.4280162 </threshold>
							<split pos="left">
								<output> -2.54724383354187 </output>
							</split>
							<split pos="right">
								<feature> 22 </feature>
								<threshold> 0.0 </threshold>
								<split pos="left">
									<feature> 6 </feature>
									<threshold> 0.2040814 </threshold>
									<split pos="left">
										<feature> 24 </feature>
										<threshold> 0.0 </threshold>
										<split pos="left">
											<feature> 6 </feature>
											<threshold> 0.17979333 </threshold>
											<split pos="left">
												<output> -0.1567363440990448 </output>
											</split>
											<split pos="right">
												<output> 0.6479060053825378 </output>
											</split>
										</split>
										<split pos="right">
											<output> 0.2822652757167816 </output>
										</split>
									</split>
									<split pos="right">
										<output> -0.9091953635215759 </output>
									</split>
								</split>
								<split pos="right">
									<output> 0.2416960597038269 </output>
								</split>
							</split>
						</split>
						<split pos="right">
							<output> 1.0451782941818237 </output>
						</split>
					</split>
				</split>
				<split pos="right">
					<output> 0.8105015158653259 </output>
				</split>
			</split>
			<split pos="right">
				<output> 0.42009440064430237 </output>
			</split>
		</split>
	</tree>
	<tree id="35" weight="0.1">
		<split>
			<feature> 25 </feature>
			<threshold> 0.0 </threshold>
			<split pos="left">
				<feature> 6 </feature>
				<threshold> 0.32714167 </threshold>
				<split pos="left">
					<feature> 6 </feature>
					<threshold> 0.31580713 </threshold>
					<split pos="left">
						<feature> 6 </feature>
						<threshold> 0.011395915 </threshold>
						<split pos="left">
							<output> -0.8240989446640015 </output>
						</split>
						<split pos="right">
							<feature> 22 </feature>
							<threshold> 0.0 </threshold>
							<split pos="left">
								<feature> 4 </feature>
								<threshold> 0.9785722 </threshold>
								<split pos="left">
									<feature> 1 </feature>
									<threshold> 5.8270383 </threshold>
									<split pos="left">
										<feature> 24 </feature>
										<threshold> 0.0 </threshold>
										<split pos="left">
											<output> 0.21555942296981812 </output>
										</split>
										<split pos="right">
											<output> 1.0483061075210571 </output>
										</split>
									</split>
									<split pos="right">
										<feature> 24 </feature>
										<threshold> 0.0 </threshold>
										<split pos="left">
											<output> -0.034683022648096085 </output>
										</split>
										<split pos="right">
											<output> -1.5937029123306274 </output>
										</split>
									</split>
								</split>
								<split pos="right">
									<output> -0.27879101037979126 </output>
								</split>
							</split>
							<split pos="right">
								<output> 0.32061079144477844 </output>
							</split>
						</split>
					</split>
					<split pos="right">
						<output> 0.8935185670852661 </output>
					</split>
				</split>
				<split pos="right">
					<output> -0.9451174139976501 </output>
				</split>
			</split>
			<split pos="right">
				<output> 0.601693868637085 </output>
			</split>
		</split>
	</tree>
	<tree id="36" weight="0.1">
		<split>
			<feature> 6 </feature>
			<threshold> 0.38867202 </threshold>
			<split pos="left">
				<feature> 6 </feature>
				<threshold> 0.33523777 </threshold>
				<split pos="left">
					<feature> 6 </feature>
					<threshold> 0.33361855 </threshold>
					<split pos="left">
						<feature> 6 </feature>
						<threshold> 0.31580713 </threshold>
						<split pos="left">
							<feature> 24 </feature>
							<threshold> 0.0 </threshold>
							<split pos="left">
								<feature> 13 </feature>
								<threshold> 0.0 </threshold>
								<split pos="left">
									<feature> 4 </feature>
									<threshold> 2.1668427 </threshold>
									<split pos="left">
										<feature> 22 </feature>
										<threshold> 0.0 </threshold>
										<split pos="left">
											<feature> 5 </feature>
											<threshold> 15.036985 </threshold>
											<split pos="left">
												<output> -0.08304973691701889 </output>
											</split>
											<split pos="right">
												<output> 1.0431381464004517 </output>
											</split>
										</split>
										<split pos="right">
											<output> 0.34012630581855774 </output>
										</split>
									</split>
									<split pos="right">
										<output> 0.9840349555015564 </output>
									</split>
								</split>
								<split pos="right">
									<output> -0.599072277545929 </output>
								</split>
							</split>
							<split pos="right">
								<output> 0.4220506250858307 </output>
							</split>
						</split>
						<split pos="right">
							<output> 0.6170221567153931 </output>
						</split>
					</split>
					<split pos="right">
						<output> 1.4254331588745117 </output>
					</split>
				</split>
				<split pos="right">
					<output> -1.5527681112289429 </output>
				</split>
			</split>
			<split pos="right">
				<output> 1.1560790538787842 </output>
			</split>
		</split>
	</tree>
	<tree id="37" weight="0.1">
		<split>
			<feature> 6 </feature>
			<threshold> 0.31580713 </threshold>
			<split pos="left">
				<feature> 24 </feature>
				<threshold> 0.0 </threshold>
				<split pos="left">
					<feature> 13 </feature>
					<threshold> 0.0 </threshold>
					<split pos="left">
						<feature> 4 </feature>
						<threshold> 2.1668427 </threshold>
						<split pos="left">
							<feature> 4 </feature>
							<threshold> 0.99022186 </threshold>
							<split pos="left">
								<feature> 1 </feature>
								<threshold> 5.57714 </threshold>
								<split pos="left">
									<output> 0.5316981673240662 </output>
								</split>
								<split pos="right">
									<feature> 1 </feature>
									<threshold> 6.0769367 </threshold>
									<split pos="left">
										<output> -0.8282371163368225 </output>
									</split>
									<split pos="right">
										<feature> 5 </feature>
										<threshold> 12.354037 </threshold>
										<split pos="left">
											<feature> 22 </feature>
											<threshold> 0.0 </threshold>
											<split pos="left">
												<output> 0.0901002287864685 </output>
											</split>
											<split pos="right">
												<output> 0.704107403755188 </output>
											</split>
										</split>
										<split pos="right">
											<output> -0.7343856692314148 </output>
										</split>
									</split>
								</split>
							</split>
							<split pos="right">
								<output> -0.30325454473495483 </output>
							</split>
						</split>
						<split pos="right">
							<output> 0.9346362948417664 </output>
						</split>
					</split>
					<split pos="right">
						<output> -0.612974226474762 </output>
					</split>
				</split>
				<split pos="right">
					<output> 0.3811874985694885 </output>
				</split>
			</split>
			<split pos="right">
				<output> 0.5575612187385559 </output>
			</split>
		</split>
	</tree>
	<tree id="38" weight="0.1">
		<split>
			<feature> 6 </feature>
			<threshold> 0.38867202 </threshold>
			<split pos="left">
				<feature> 3 </feature>
				<threshold> 10.915018 </threshold>
				<split pos="left">
					<feature> 6 </feature>
					<threshold> 0.33523777 </threshold>
					<split pos="left">
						<feature> 6 </feature>
						<threshold> 0.33361855 </threshold>
						<split pos="left">
							<feature> 6 </feature>
							<threshold> 0.31580713 </threshold>
							<split pos="left">
								<feature> 24 </feature>
								<threshold> 0.0 </threshold>
								<split pos="left">
									<feature> 13 </feature>
									<threshold> 0.0 </threshold>
									<split pos="left">
										<feature> 22 </feature>
										<threshold> 0.0 </threshold>
										<split pos="left">
											<feature> 4 </feature>
											<threshold> 2.1668427 </threshold>
											<split pos="left">
												<output> -0.06677111238241196 </output>
											</split>
											<split pos="right">
												<output> 0.8381986618041992 </output>
											</split>
										</split>
										<split pos="right">
											<output> 0.33617982268333435 </output>
										</split>
									</split>
									<split pos="right">
										<output> -0.5704283714294434 </output>
									</split>
								</split>
								<split pos="right">
									<output> 0.31527531147003174 </output>
								</split>
							</split>
							<split pos="right">
								<output> 0.47193196415901184 </output>
							</split>
						</split>
						<split pos="right">
							<output> 1.339439868927002 </output>
						</split>
					</split>
					<split pos="right">
						<output> -1.469514012336731 </output>
					</split>
				</split>
				<split pos="right">
					<output> -3.1152184009552 </output>
				</split>
			</split>
			<split pos="right">
				<output> 1.110702395439148 </output>
			</split>
		</split>
	</tree>
	<tree id="39" weight="0.1">
		<split>
			<feature> 6 </feature>
			<threshold> 0.38867202 </threshold>
			<split pos="left">
				<feature> 6 </feature>
				<threshold> 0.31580713 </threshold>
				<split pos="left">
					<feature> 5 </feature>
					<threshold> 12.790796 </threshold>
					<split pos="left">
						<feature> 4 </feature>
						<threshold> 2.1668427 </threshold>
						<split pos="left">
							<feature> 12 </feature>
							<threshold> 0.0 </threshold>
							<split pos="left">
								<feature> 22 </feature>
								<threshold> 0.0 </threshold>
								<split pos="left">
									<feature> 24 </feature>
									<threshold> 0.0 </threshold>
									<split pos="left">
										<feature> 5 </feature>
										<threshold> 2.994916 </threshold>
										<split pos="left">
											<output> -0.2841269373893738 </output>
										</split>
										<split pos="right">
											<feature> 5 </feature>
											<threshold> 3.1197042 </threshold>
											<split pos="left">
												<output> 1.1947665214538574 </output>
											</split>
											<split pos="right">
												<output> -0.08077249675989151 </output>
											</split>
										</split>
									</split>
									<split pos="right">
										<output> 0.25918859243392944 </output>
									</split>
								</split>
								<split pos="right">
									<output> -0.3602343499660492 </output>
								</split>
							</split>
							<split pos="right">
								<output> 0.4024398624897003 </output>
							</split>
						</split>
						<split pos="right">
							<output> 1.160024642944336 </output>
						</split>
					</split>
					<split pos="right">
						<output> -0.6447123289108276 </output>
					</split>
				</split>
				<split pos="right">
					<output> 0.35147446393966675 </output>
				</split>
			</split>
			<split pos="right">
				<output> 0.9247334003448486 </output>
			</split>
		</split>
	</tree>
	<tree id="40" weight="0.1">
		<split>
			<feature> 6 </feature>
			<threshold> 0.38867202 </threshold>
			<split pos="left">
				<feature> 6 </feature>
				<threshold> 0.33523777 </threshold>
				<split pos="left">
					<feature> 6 </feature>
					<threshold> 0.33361855 </threshold>
					<split pos="left">
						<feature> 6 </feature>
						<threshold> 0.31580713 </threshold>
						<split pos="left">
							<feature> 1 </feature>
							<threshold> 3.4280162 </threshold>
							<split pos="left">
								<output> -2.419628143310547 </output>
							</split>
							<split pos="right">
								<feature> 6 </feature>
								<threshold> 0.26237288 </threshold>
								<split pos="left">
									<feature> 6 </feature>
									<threshold> 0.255896 </threshold>
									<split pos="left">
										<feature> 4 </feature>
										<threshold> 2.1668427 </threshold>
										<split pos="left">
											<feature> 1 </feature>
											<threshold> 15.023233 </threshold>
											<split pos="left">
												<output> -0.07354938238859177 </output>
											</split>
											<split pos="right">
												<output> 1.0395563840866089 </output>
											</split>
										</split>
										<split pos="right">
											<output> 0.6431915760040283 </output>
										</split>
									</split>
									<split pos="right">
										<output> 1.1489486694335938 </output>
									</split>
								</split>
								<split pos="right">
									<output> -0.9190390110015869 </output>
								</split>
							</split>
						</split>
						<split pos="right">
							<output> 0.43351414799690247 </output>
						</split>
					</split>
					<split pos="right">
						<output> 1.2906893491744995 </output>
					</split>
				</split>
				<split pos="right">
					<output> -1.326802134513855 </output>
				</split>
			</split>
			<split pos="right">
				<output> 0.8732190728187561 </output>
			</split>
		</split>
	</tree>
	<tree id="41" weight="0.1">
		<split>
			<feature> 6 </feature>
			<threshold> 0.38867202 </threshold>
			<split pos="left">
				<feature> 6 </feature>
				<threshold> 0.31580713 </threshold>
				<split pos="left">
					<feature> 22 </feature>
					<threshold> 0.0 </threshold>
					<split pos="left">
						<feature> 25 </feature>
						<threshold> 0.0 </threshold>
						<split pos="left">
							<feature> 6 </feature>
							<threshold> 0.0729258 </threshold>
							<split pos="left">
								<feature> 24 </feature>
								<threshold> 0.0 </threshold>
								<split pos="left">
									<feature> 3 </feature>
									<threshold> 6.5255065 </threshold>
									<split pos="left">
										<feature> 4 </feature>
										<threshold> 0.9319735 </threshold>
										<split pos="left">
											<output> -0.45580026507377625 </output>
										</split>
										<split pos="right">
											<output> -0.058761123567819595 </output>
										</split>
									</split>
									<split pos="right">
										<output> 0.19134046137332916 </output>
									</split>
								</split>
								<split pos="right">
									<output> 0.5839620232582092 </output>
								</split>
							</split>
							<split pos="right">
								<output> -0.4000888168811798 </output>
							</split>
						</split>
						<split pos="right">
							<output> 0.46401897072792053 </output>
						</split>
					</split>
					<split pos="right">
						<output> 0.15540237724781036 </output>
					</split>
				</split>
				<split pos="right">
					<feature> 16 </feature>
					<threshold> 0.0 </threshold>
					<split pos="left">
						<output> -0.5616046786308289 </output>
					</split>
					<split pos="right">
						<output> 1.377455711364746 </output>
					</split>
				</split>
			</split>
			<split pos="right">
				<output> 0.8251296877861023 </output>
			</split>
		</split>
	</tree>
	<tree id="42" weight="0.1">
		<split>
			<feature> 6 </feature>
			<threshold> 0.38867202 </threshold>
			<split pos="left">
				<feature> 1 </feature>
				<threshold> 5.7770586 </threshold>
				<split pos="left">
					<feature> 6 </feature>
					<threshold> 0.24941914 </threshold>
					<split pos="left">
						<feature> 24 </feature>
						<threshold> 0.0 </threshold>
						<split pos="left">
							<output> -0.062322381883859634 </output>
						</split>
						<split pos="right">
							<output> 0.8288370370864868 </output>
						</split>
					</split>
					<split pos="right">
						<output> 0.9057662487030029 </output>
					</split>
				</split>
				<split pos="right">
					<feature> 6 </feature>
					<threshold> 0.31580713 </threshold>
					<split pos="left">
						<feature> 24 </feature>
						<threshold> 0.0 </threshold>
						<split pos="left">
							<feature> 6 </feature>
							<threshold> 0.011395915 </threshold>
							<split pos="left">
								<output> -1.080989956855774 </output>
							</split>
							<split pos="right">
								<feature> 16 </feature>
								<threshold> 0.0 </threshold>
								<split pos="left">
									<feature> 3 </feature>
									<threshold> 6.884456 </threshold>
									<split pos="left">
										<output> -0.09567628055810928 </output>
									</split>
									<split pos="right">
										<output> -0.6800488829612732 </output>
									</split>
								</split>
								<split pos="right">
									<output> 0.23086419701576233 </output>
								</split>
							</split>
						</split>
						<split pos="right">
							<output> -0.8399602770805359 </output>
						</split>
					</split>
					<split pos="right">
						<output> -2.488410234451294 </output>
					</split>
				</split>
			</split>
			<split pos="right">
				<output> 0.7852015495300293 </output>
			</split>
		</split>
	</tree>
	<tree id="43" weight="0.1">
		<split>
			<feature> 6 </feature>
			<threshold> 0.31580713 </threshold>
			<split pos="left">
				<feature> 1 </feature>
				<threshold> 3.4280162 </threshold>
				<split pos="left">
					<output> -2.1850953102111816 </output>
				</split>
				<split pos="right">
					<feature> 4 </feature>
					<threshold> 0.9785722 </threshold>
					<split pos="left">
						<feature> 1 </feature>
						<threshold> 5.7770586 </threshold>
						<split pos="left">
							<feature> 24 </feature>
							<threshold> 0.0 </threshold>
							<split pos="left">
								<feature> 22 </feature>
								<threshold> 0.0 </threshold>
								<split pos="left">
									<output> 0.27026912569999695 </output>
								</split>
								<split pos="right">
									<output> 0.7046785354614258 </output>
								</split>
							</split>
							<split pos="right">
								<output> 0.9258895516395569 </output>
							</split>
						</split>
						<split pos="right">
							<feature> 6 </feature>
							<threshold> 0.043780066 </threshold>
							<split pos="left">
								<feature> 6 </feature>
								<threshold> 0.03730323 </threshold>
								<split pos="left">
									<output> -0.2006656378507614 </output>
								</split>
								<split pos="right">
									<output> 0.5467426180839539 </output>
								</split>
							</split>
							<split pos="right">
								<output> -0.4585874676704407 </output>
							</split>
						</split>
					</split>
					<split pos="right">
						<output> -0.22819972038269043 </output>
					</split>
				</split>
			</split>
			<split pos="right">
				<feature> 15 </feature>
				<threshold> 0.0 </threshold>
				<split pos="left">
					<output> 0.21724048256874084 </output>
				</split>
				<split pos="right">
					<output> 1.318527340888977 </output>
				</split>
			</split>
		</split>
	</tree>
	<tree id="44" weight="0.1">
		<split>
			<feature> 6 </feature>
			<threshold> 0.38867202 </threshold>
			<split pos="left">
				<feature> 6 </feature>
				<threshold> 0.31580713 </threshold>
				<split pos="left">
					<feature> 4 </feature>
					<threshold> 2.1668427 </threshold>
					<split pos="left">
						<feature> 1 </feature>
						<threshold> 15.023233 </threshold>
						<split pos="left">
							<feature> 5 </feature>
							<threshold> 12.354037 </threshold>
							<split pos="left">
								<feature> 22 </feature>
								<threshold> 0.0 </threshold>
								<split pos="left">
									<feature> 4 </feature>
									<threshold> 0.9785722 </threshold>
									<split pos="left">
										<feature> 4 </feature>
										<threshold> 0.9319735 </threshold>
										<split pos="left">
											<feature> 24 </feature>
											<threshold> 0.0 </threshold>
											<split pos="left">
												<output> -0.050551436841487885 </output>
											</split>
											<split pos="right">
												<output> 0.3175213634967804 </output>
											</split>
										</split>
										<split pos="right">
											<output> 0.5068065524101257 </output>
										</split>
									</split>
									<split pos="right">
										<output> -0.27682700753211975 </output>
									</split>
								</split>
								<split pos="right">
									<output> 0.30980005860328674 </output>
								</split>
							</split>
							<split pos="right">
								<output> -0.8787556886672974 </output>
							</split>
						</split>
						<split pos="right">
							<output> 1.037475824356079 </output>
						</split>
					</split>
					<split pos="right">
						<output> 0.41172000765800476 </output>
					</split>
				</split>
				<split pos="right">
					<output> 0.36480551958084106 </output>
				</split>
			</split>
			<split pos="right">
				<output> 0.716214120388031 </output>
			</split>
		</split>
	</tree>
	<tree id="45" weight="0.1">
		<split>
			<feature> 6 </feature>
			<threshold> 0.38867202 </threshold>
			<split pos="left">
				<feature> 6 </feature>
				<threshold> 0.31580713 </threshold>
				<split pos="left">
					<feature> 3 </feature>
					<threshold> 8.173928 </threshold>
					<split pos="left">
						<feature> 3 </feature>
						<threshold> 8.170231 </threshold>
						<split pos="left">
							<feature> 3 </feature>
							<threshold> 7.946692 </threshold>
							<split pos="left">
								<feature> 3 </feature>
								<threshold> 7.4586844 </threshold>
								<split pos="left">
									<feature> 13 </feature>
									<threshold> 0.0 </threshold>
									<split pos="left">
										<feature> 22 </feature>
										<threshold> 0.0 </threshold>
										<split pos="left">
											<feature> 4 </feature>
											<threshold> 2.1668427 </threshold>
											<split pos="left">
												<output> -0.04913865402340889 </output>
											</split>
											<split pos="right">
												<output> 0.6741124987602234 </output>
											</split>
										</split>
										<split pos="right">
											<output> 0.34217914938926697 </output>
										</split>
									</split>
									<split pos="right">
										<output> -0.3944554626941681 </output>
									</split>
								</split>
								<split pos="right">
									<output> -1.450738787651062 </output>
								</split>
							</split>
							<split pos="right">
								<output> 0.8558074831962585 </output>
							</split>
						</split>
						<split pos="right">
							<output> 1.0365800857543945 </output>
						</split>
					</split>
					<split pos="right">
						<output> -0.36857712268829346 </output>
					</split>
				</split>
				<split pos="right">
					<output> 0.3332591950893402 </output>
				</split>
			</split>
			<split pos="right">
				<output> 0.6781413555145264 </output>
			</split>
		</split>
	</tree>
	<tree id="46" weight="0.1">
		<split>
			<feature> 6 </feature>
			<threshold> 0.38867202 </threshold>
			<split pos="left">
				<feature> 6 </feature>
				<threshold> 0.3465723 </threshold>
				<split pos="left">
					<feature> 6 </feature>
					<threshold> 0.31580713 </threshold>
					<split pos="left">
						<feature> 6 </feature>
						<threshold> 0.011395915 </threshold>
						<split pos="left">
							<output> -0.8051084876060486 </output>
						</split>
						<split pos="right">
							<feature> 18 </feature>
							<threshold> 0.0 </threshold>
							<split pos="left">
								<feature> 24 </feature>
								<threshold> 0.0 </threshold>
								<split pos="left">
									<feature> 13 </feature>
									<threshold> 0.0 </threshold>
									<split pos="left">
										<feature> 22 </feature>
										<threshold> 0.0 </threshold>
										<split pos="left">
											<feature> 4 </feature>
											<threshold> 2.1668427 </threshold>
											<split pos="left">
												<output> 0.0056749023497104645 </output>
											</split>
											<split pos="right">
												<output> 0.6284496784210205 </output>
											</split>
										</split>
										<split pos="right">
											<output> 0.30885329842567444 </output>
										</split>
									</split>
									<split pos="right">
										<output> -0.47570592164993286 </output>
									</split>
								</split>
								<split pos="right">
									<output> 0.4093341529369354 </output>
								</split>
							</split>
							<split pos="right">
								<output> -0.5139262676239014 </output>
							</split>
						</split>
					</split>
					<split pos="right">
						<output> 0.48349642753601074 </output>
					</split>
				</split>
				<split pos="right">
					<output> -1.200850248336792 </output>
				</split>
			</split>
			<split pos="right">
				<output> 0.6359699368476868 </output>
			</split>
		</split>
	</tree>
	<tree id="47" weight="0.1">
		<split>
			<feature> 6 </feature>
			<threshold> 0.38867202 </threshold>
			<split pos="left">
				<feature> 1 </feature>
				<threshold> 5.7770586 </threshold>
				<split pos="left">
					<feature> 6 </feature>
					<threshold> 0.24941914 </threshold>
					<split pos="left">
						<output> 9.126871591433883E-4 </output>
					</split>
					<split pos="right">
						<output> 0.8131060600280762 </output>
					</split>
				</split>
				<split pos="right">
					<feature> 6 </feature>
					<threshold> 0.31580713 </threshold>
					<split pos="left">
						<feature> 24 </feature>
						<threshold> 0.0 </threshold>
						<split pos="left">
							<feature> 6 </feature>
							<threshold> 0.21379663 </threshold>
							<split pos="left">
								<feature> 1 </feature>
								<threshold> 6.0769367 </threshold>
								<split pos="left">
									<output> -0.44174709916114807 </output>
								</split>
								<split pos="right">
									<feature> 15 </feature>
									<threshold> 0.0 </threshold>
									<split pos="left">
										<feature> 16 </feature>
										<threshold> 0.0 </threshold>
										<split pos="left">
											<output> -0.01930674910545349 </output>
										</split>
										<split pos="right">
											<output> 0.47552645206451416 </output>
										</split>
									</split>
									<split pos="right">
										<output> -0.40188002586364746 </output>
									</split>
								</split>
							</split>
							<split pos="right">
								<output> -1.1146907806396484 </output>
							</split>
						</split>
						<split pos="right">
							<output> -0.7959499955177307 </output>
						</split>
					</split>
					<split pos="right">
						<output> -2.3621630668640137 </output>
					</split>
				</split>
			</split>
			<split pos="right">
				<output> 0.6008541584014893 </output>
			</split>
		</split>
	</tree>
	<tree id="48" weight="0.1">
		<split>
			<feature> 6 </feature>
			<threshold> 0.38867202 </threshold>
			<split pos="left">
				<feature> 6 </feature>
				<threshold> 0.25103834 </threshold>
				<split pos="left">
					<feature> 4 </feature>
					<threshold> 2.1668427 </threshold>
					<split pos="left">
						<feature> 1 </feature>
						<threshold> 15.023233 </threshold>
						<split pos="left">
							<feature> 5 </feature>
							<threshold> 13.040373 </threshold>
							<split pos="left">
								<feature> 22 </feature>
								<threshold> 0.0 </threshold>
								<split pos="left">
									<feature> 6 </feature>
									<threshold> 0.0729258 </threshold>
									<split pos="left">
										<feature> 6 </feature>
										<threshold> 0.058352944 </threshold>
										<split pos="left">
											<feature> 6 </feature>
											<threshold> 0.056733735 </threshold>
											<split pos="left">
												<output> -0.04555743187665939 </output>
											</split>
											<split pos="right">
												<output> -1.9997272491455078 </output>
											</split>
										</split>
										<split pos="right">
											<output> 0.5966538190841675 </output>
										</split>
									</split>
									<split pos="right">
										<output> -0.3833843767642975 </output>
									</split>
								</split>
								<split pos="right">
									<output> 0.23028095066547394 </output>
								</split>
							</split>
							<split pos="right">
								<output> -0.9086357355117798 </output>
							</split>
						</split>
						<split pos="right">
							<output> 1.0358519554138184 </output>
						</split>
					</split>
					<split pos="right">
						<output> 0.5681711435317993 </output>
					</split>
				</split>
				<split pos="right">
					<output> 0.2866831421852112 </output>
				</split>
			</split>
			<split pos="right">
				<output> 0.5500169992446899 </output>
			</split>
		</split>
	</tree>
	<tree id="49" weight="0.1">
		<split>
			<feature> 6 </feature>
			<threshold> 0.31580713 </threshold>
			<split pos="left">
				<feature> 1 </feature>
				<threshold> 3.4280162 </threshold>
				<split pos="left">
					<output> -2.1797194480895996 </output>
				</split>
				<split pos="right">
					<feature> 1 </feature>
					<threshold> 4.277668 </threshold>
					<split pos="left">
						<output> 3.067493438720703 </output>
					</split>
					<split pos="right">
						<feature> 6 </feature>
						<threshold> 0.032445606 </threshold>
						<split pos="left">
							<feature> 5 </feature>
							<threshold> 5.8026524 </threshold>
							<split pos="left">
								<feature> 16 </feature>
								<threshold> 0.0 </threshold>
								<split pos="left">
									<output> -0.21241088211536407 </output>
								</split>
								<split pos="right">
									<output> -0.8605544567108154 </output>
								</split>
							</split>
							<split pos="right">
								<output> 0.21583881974220276 </output>
							</split>
						</split>
						<split pos="right">
							<feature> 1 </feature>
							<threshold> 5.7770586 </threshold>
							<split pos="left">
								<feature> 3 </feature>
								<threshold> 5.431837 </threshold>
								<split pos="left">
									<output> 0.16498896479606628 </output>
								</split>
								<split pos="right">
									<output> 0.9073174595832825 </output>
								</split>
							</split>
							<split pos="right">
								<feature> 16 </feature>
								<threshold> 0.0 </threshold>
								<split pos="left">
									<output> -0.3263065218925476 </output>
								</split>
								<split pos="right">
									<output> 0.2793111503124237 </output>
								</split>
							</split>
						</split>
					</split>
				</split>
			</split>
			<split pos="right">
				<output> 0.37709006667137146 </output>
			</split>
		</split>
	</tree>
	<tree id="50" weight="0.1">
		<split>
			<feature> 25 </feature>
			<threshold> 0.0 </threshold>
			<split pos="left">
				<feature> 6 </feature>
				<threshold> 0.3465723 </threshold>
				<split pos="left">
					<feature> 6 </feature>
					<threshold> 0.255896 </threshold>
					<split pos="left">
						<feature> 22 </feature>
						<threshold> 0.0 </threshold>
						<split pos="left">
							<feature> 6 </feature>
							<threshold> 0.0729258 </threshold>
							<split pos="left">
								<feature> 3 </feature>
								<threshold> 6.5255065 </threshold>
								<split pos="left">
									<feature> 24 </feature>
									<threshold> 0.0 </threshold>
									<split pos="left">
										<feature> 3 </feature>
										<threshold> 5.2363386 </threshold>
										<split pos="left">
											<output> -0.09055574983358383 </output>
										</split>
										<split pos="right">
											<output> -0.7460205554962158 </output>
										</split>
									</split>
									<split pos="right">
										<output> 0.25433361530303955 </output>
									</split>
								</split>
								<split pos="right">
									<feature> 5 </feature>
									<threshold> 5.116317 </threshold>
									<split pos="left">
										<output> 0.1572444587945938 </output>
									</split>
									<split pos="right">
										<output> 0.9740201234817505 </output>
									</split>
								</split>
							</split>
							<split pos="right">
								<output> -0.4392263889312744 </output>
							</split>
						</split>
						<split pos="right">
							<output> 0.17503154277801514 </output>
						</split>
					</split>
					<split pos="right">
						<output> 0.4289461672306061 </output>
					</split>
				</split>
				<split pos="right">
					<output> -0.8641130328178406 </output>
				</split>
			</split>
			<split pos="right">
				<output> 0.6927767395973206 </output>
			</split>
		</split>
	</tree>
	<tree id="51" weight="0.1">
		<split>
			<feature> 6 </feature>
			<threshold> 0.38867202 </threshold>
			<split pos="left">
				<feature> 6 </feature>
				<threshold> 0.3465723 </threshold>
				<split pos="left">
					<feature> 6 </feature>
					<threshold> 0.33361855 </threshold>
					<split pos="left">
						<feature> 6 </feature>
						<threshold> 0.32714167 </threshold>
						<split pos="left">
							<feature> 6 </feature>
							<threshold> 0.31580713 </threshold>
							<split pos="left">
								<feature> 4 </feature>
								<threshold> 0.9785722 </threshold>
								<split pos="left">
									<feature> 1 </feature>
									<threshold> 5.8270383 </threshold>
									<split pos="left">
										<output> 0.3652634918689728 </output>
									</split>
									<split pos="right">
										<feature> 6 </feature>
										<threshold> 0.043780066 </threshold>
										<split pos="left">
											<feature> 6 </feature>
											<threshold> 0.03730323 </threshold>
											<split pos="left">
												<output> -0.09754349291324615 </output>
											</split>
											<split pos="right">
												<output> 0.40542110800743103 </output>
											</split>
										</split>
										<split pos="right">
											<output> -0.35272273421287537 </output>
										</split>
									</split>
								</split>
								<split pos="right">
									<output> -0.18653853237628937 </output>
								</split>
							</split>
							<split pos="right">
								<output> 0.4503023028373718 </output>
							</split>
						</split>
						<split pos="right">
							<output> -2.642334461212158 </output>
						</split>
					</split>
					<split pos="right">
						<output> 1.0043264627456665 </output>
					</split>
				</split>
				<split pos="right">
					<output> -1.2291911840438843 </output>
				</split>
			</split>
			<split pos="right">
				<output> 0.48811039328575134 </output>
			</split>
		</split>
	</tree>
	<tree id="52" weight="0.1">
		<split>
			<feature> 6 </feature>
			<threshold> 0.31580713 </threshold>
			<split pos="left">
				<feature> 1 </feature>
				<threshold> 3.4280162 </threshold>
				<split pos="left">
					<output> -1.9268062114715576 </output>
				</split>
				<split pos="right">
					<feature> 3 </feature>
					<threshold> 5.431837 </threshold>
					<split pos="left">
						<feature> 24 </feature>
						<threshold> 0.0 </threshold>
						<split pos="left">
							<feature> 20 </feature>
							<threshold> 0.0 </threshold>
							<split pos="left">
								<feature> 5 </feature>
								<threshold> 12.790796 </threshold>
								<split pos="left">
									<output> 0.08400359749794006 </output>
								</split>
								<split pos="right">
									<output> -0.5453413128852844 </output>
								</split>
							</split>
							<split pos="right">
								<output> -0.667690634727478 </output>
							</split>
						</split>
						<split pos="right">
							<output> -0.575641930103302 </output>
						</split>
					</split>
					<split pos="right">
						<feature> 3 </feature>
						<threshold> 5.5713973 </threshold>
						<split pos="left">
							<output> 1.0813344717025757 </output>
						</split>
						<split pos="right">
							<feature> 24 </feature>
							<threshold> 0.0 </threshold>
							<split pos="left">
								<feature> 25 </feature>
								<threshold> 0.0 </threshold>
								<split pos="left">
									<output> -0.12467540800571442 </output>
								</split>
								<split pos="right">
									<output> 1.0436457395553589 </output>
								</split>
							</split>
							<split pos="right">
								<output> 0.9283102750778198 </output>
							</split>
						</split>
					</split>
				</split>
			</split>
			<split pos="right">
				<output> 0.40445438027381897 </output>
			</split>
		</split>
	</tree>
	<tree id="53" weight="0.1">
		<split>
			<feature> 6 </feature>
			<threshold> 0.31580713 </threshold>
			<split pos="left">
				<feature> 22 </feature>
				<threshold> 0.0 </threshold>
				<split pos="left">
					<feature> 4 </feature>
					<threshold> 1.6892055 </threshold>
					<split pos="left">
						<feature> 6 </feature>
						<threshold> 0.17979333 </threshold>
						<split pos="left">
							<feature> 6 </feature>
							<threshold> 0.17493571 </threshold>
							<split pos="left">
								<feature> 6 </feature>
								<threshold> 0.1716973 </threshold>
								<split pos="left">
									<feature> 1 </feature>
									<threshold> 15.023233 </threshold>
									<split pos="left">
										<feature> 6 </feature>
										<threshold> 0.01949195 </threshold>
										<split pos="left">
											<output> -0.0016287592006847262 </output>
										</split>
										<split pos="right">
											<feature> 6 </feature>
											<threshold> 0.030826397 </threshold>
											<split pos="left">
												<output> -0.743593156337738 </output>
											</split>
											<split pos="right">
												<output> -0.10120081156492233 </output>
											</split>
										</split>
									</split>
									<split pos="right">
										<output> 1.032470464706421 </output>
									</split>
								</split>
								<split pos="right">
									<output> 3.571423053741455 </output>
								</split>
							</split>
							<split pos="right">
								<output> -1.8015164136886597 </output>
							</split>
						</split>
						<split pos="right">
							<output> 0.2597426772117615 </output>
						</split>
					</split>
					<split pos="right">
						<output> 0.3732444643974304 </output>
					</split>
				</split>
				<split pos="right">
